{
  "activation": "relu",
  "solver": "sgd",
  "alpha": 0.0001,
  "batch_size": "auto",
  "learning_rate": "constant",
  "learning_rate_init": 0.001,
  "power_t": 0.5,
  "max_iter": 200,
  "loss": "squared_error",
  "hidden_layer_sizes": [
    50
  ],
  "shuffle": true,
  "random_state": null,
  "tol": 0.0001,
  "verbose": false,
  "warm_start": false,
  "momentum": 0.9,
  "nesterovs_momentum": true,
  "early_stopping": false,
  "validation_fraction": 0.1,
  "beta_1": 0.9,
  "beta_2": 0.999,
  "epsilon": 1e-08,
  "n_iter_no_change": 10,
  "max_fun": 15000,
  "n_features_in_": 1222,
  "n_outputs_": 1,
  "_random_state": null,
  "n_iter_": 6,
  "t_": 66,
  "n_layers_": 3,
  "out_activation_": "identity",
  "coefs_": [
    [
      [
        0.04283708345669068,
        0.05162476346545711,
        0.025738421259805855,
        0.010134039785846935,
        -0.04700235379866821,
        -0.00447865168528661,
        -0.021267252812155468,
        -0.038063108923099255,
        0.012707481535775821,
        -0.025621062801377333,
        0.05781494203711523,
        0.056173225329531666,
        -0.0338277268372387,
        -0.0534481864561912,
        -0.0428225953680054,
        -9.040341073355941e-05,
        0.03139865396605304,
        -0.04011981261548242,
        -0.03475868484583593,
        0.048305843531481686,
        -0.011926559431961192,
        0.016091092740801158,
        -0.037363709044297276,
        -0.05478976325948955,
        0.0021817176094484883,
        -0.003139926680395262,
        -0.047709215351720465,
        0.016750937699241047,
        0.005342470399213142,
        0.02156481000765336,
        -0.04895129025132137,
        0.03476353848253991,
        -0.03767438722668379,
        0.002638000874431513,
        0.03991680786406714,
        -0.0656320419761865,
        -0.024125669817230445,
        0.05059624008734677,
        0.04749350502264816,
        0.004479312097415072,
        0.05035751560297086,
        0.06178560011881215,
        0.04483544599043268,
        0.04826840949392662,
        -0.05496934130369201,
        0.020783246897471463,
        0.02785411222395534,
        0.014913820613209455,
        0.041513574349875425,
        -0.06394672381417704
      ],
      [
        0.037120142263069915,
        0.03189854820080398,
        -0.033088831447072344,
        -0.033034385733054665,
        0.017926767355025776,
        -0.021209783287451732,
        0.04073958509085043,
        -0.007564920932645915,
        0.038838616228988015,
        0.06746573327538724,
        -0.0270789746154866,
        -0.049090708298382336,
        0.05485916146345325,
        0.005708619303611562,
        0.06484201393575746,
        0.01874511716493758,
        0.06784416663775512,
        0.00630712238718913,
        0.0035454223920804487,
        -0.050077825169631614,
        -0.020029518768275273,
        -0.06504293822455902,
        -0.047092088699455366,
        0.03367499096242137,
        -0.06450251659682256,
        -0.018331714084063037,
        0.049772081992568815,
        0.026477451070767953,
        0.025828038664298402,
        -0.042545737675682975,
        -0.008051678727311624,
        0.011327019785962154,
        0.06755996287097196,
        -0.04068308517803516,
        -0.034237100374521275,
        -0.03267889618430995,
        0.034363821260522134,
        -0.00626755335406042,
        -0.06077848127874365,
        0.0007140832169615807,
        -0.0395653113291303,
        0.04101644445644957,
        -0.027838673693831,
        -0.06510058237470319,
        0.01291785236767481,
        0.04723011177039095,
        -0.01640121296820929,
        0.0341904227480482,
        0.0017342451228908606,
        0.005616531672195538
      ],
      [
        0.06310815282062944,
        0.041861304250473505,
        -0.06436973155217968,
        0.029296991593083258,
        -0.005201730678618271,
        0.061539948214897895,
        -0.03826415391107727,
        -0.03226312983433165,
        -0.05748896800504331,
        -0.009654171606538286,
        -0.05313106044761308,
        0.018290972699343995,
        0.041191611542144055,
        0.027032625154398478,
        0.03597730712141544,
        -0.021670886308359196,
        0.04750635127500276,
        -0.009818256687470252,
        0.0443710651226979,
        0.017375582414556993,
        -0.04931411117668566,
        -0.057855512088803275,
        -0.06687202342408155,
        -0.05962026780604954,
        -0.0056856834893620695,
        -0.05311156765764105,
        -0.06486394076183634,
        0.03502572406604012,
        -0.01508309256875319,
        0.034276800509902394,
        -0.006652269119183157,
        -0.006661742797188284,
        -0.002552217324056743,
        -0.003589200285361522,
        0.04230568604363088,
        -0.01342478929913119,
        0.05558791513951007,
        -0.06416170816950718,
        0.0377506069821654,
        -0.052151120157991386,
        0.01627908919542933,
        -0.06725663627107367,
        0.005305864930247762,
        -0.06860532172781399,
        0.0621104759147605,
        0.05568624790064417,
        0.0405621641002991,
        0.056833941705429,
        -0.04836022161516974,
        -0.047028194288741526
      ],
      [
        -0.04290708643020152,
        0.01688368246473968,
        0.05567392261390048,
        0.06758317771236164,
        0.028791737044467105,
        0.031874217930860205,
        0.05622074128273972,
        -0.013757524714668288,
        -0.03436064912140735,
        -0.0447782121115525,
        -0.05196839396948714,
        0.04289493683964619,
        -0.04874040877089337,
        -0.03237622832770147,
        0.04351899460369692,
        -0.026033833923899442,
        0.0662651280447663,
        -0.03207253109316775,
        0.004551316758029134,
        -0.025484914109796735,
        0.05624739740941023,
        -0.01829950041414032,
        -0.009496569631287081,
        0.0016329038064797695,
        0.060287414190368156,
        -0.06442910430483419,
        0.02979057336502923,
        0.05371998203997742,
        -0.06526978782437062,
        0.0032175350358735443,
        -0.023962617809698997,
        0.04948226078797055,
        0.008280573057712735,
        0.02612011023263624,
        -0.006126067451336828,
        0.017615429820469593,
        -0.028832412717074107,
        -0.06769819591013973,
        0.010612433217951309,
        -0.02628497689253543,
        0.0023718868945972783,
        0.057197738621703555,
        -0.010099463776889533,
        -0.03487709322321098,
        -0.017608290222272137,
        0.05932068218804945,
        0.0599599055392203,
        0.047187353434973156,
        0.057891947369855895,
        -0.03738305572942505
      ],
      [
        -0.05666367218835021,
        -0.037294226957977614,
        -0.025690265666177926,
        -0.043875804815642586,
        0.014122450588489896,
        -0.011773807938898363,
        0.0434542188909426,
        -0.04365036572262675,
        0.027729871946260636,
        -0.03544002049250545,
        0.01105131725822427,
        -0.020871479529654045,
        -0.061487332839323144,
        -0.037250304366350996,
        0.021661862636914705,
        -0.000422912159992648,
        0.002612046105269252,
        -0.04473117152472432,
        0.009512071528444337,
        0.06823432563715066,
        0.04302178281916957,
        0.013048824060817301,
        0.06432336767092808,
        0.0550017099125789,
        0.013137630670753736,
        -0.0642261789427621,
        -0.055826475235199166,
        -0.05967422122857157,
        -0.007583974879955559,
        -0.016577640755393683,
        0.06512347997490171,
        -0.04531612541071973,
        0.06562802324923465,
        0.036713107074733776,
        0.04552625888048167,
        0.018190274607100595,
        0.023177226776280282,
        -0.004028744346755617,
        -0.06668037965858703,
        -0.02127838158479002,
        -0.0010890217382552643,
        0.031605456202316015,
        -0.004309228217081415,
        -0.0063573375392810254,
        -0.04957063591570461,
        -0.06718459444233121,
        0.03534001207622462,
        -0.02504212960636685,
        0.06702150359445042,
        -0.038449372930881506
      ],
      [
        -0.02215515495908086,
        0.0034144169916036737,
        0.03485542593913579,
        -0.004316341934653186,
        -0.05201191563855757,
        -0.02567698293281679,
        0.0006207556532860662,
        0.023555556057737213,
        0.03710794763445279,
        -0.050594750421568885,
        -0.0648373840272516,
        0.0025169906866109324,
        0.04206745413007145,
        -0.06694901652840039,
        0.022976778093667664,
        0.025623405935851325,
        -0.006971494039442979,
        0.05693457122378011,
        0.01966596283795781,
        -0.06796052994668199,
        -0.0025438461168915145,
        0.0494256949240839,
        0.04452447382908922,
        0.020360344702480188,
        0.023863266297576406,
        0.010782745760576737,
        -0.031027032797605124,
        0.008335992453771063,
        0.022814522791050118,
        -0.019837953907540208,
        0.048738090775787224,
        -0.04165452878328129,
        0.034528673941760346,
        -0.02892251510915246,
        0.038411809024844874,
        -0.009947069616012591,
        0.04226562390907637,
        -0.02081114952388316,
        -0.039168583740782276,
        0.03583185158274943,
        -0.026285048066227768,
        0.032038671696795126,
        0.03358096771986034,
        -0.0386801930754647,
        -0.03910720362606286,
        -0.04135267999009349,
        -0.0492152714418244,
        -0.01713624035532828,
        -0.06462790484371296,
        -0.05346090761888918
      ],
      [
        0.023978210994743225,
        0.041246228042533764,
        -0.05770025130257828,
        -0.03651597351682896,
        -0.04040927899973248,
        0.05736575341678703,
        0.029026279257841157,
        0.007232663050277305,
        -0.026851517456249172,
        0.04609079344638088,
        -0.008524343602438972,
        0.05811193339233729,
        0.028036358960365774,
        -0.003017631706295393,
        -0.051715696351046475,
        0.06537050643032981,
        -0.04672543820607434,
        -0.04087210511535737,
        -0.009538086319354443,
        -0.013158879285064286,
        -0.04873328497691855,
        0.031535620092718826,
        -0.043201692356063005,
        0.019699157446642374,
        0.034933665637150016,
        -0.03973395884808102,
        0.013867131438385414,
        0.03420416689826859,
        0.01858253099041089,
        0.013566635681727493,
        -0.028164891854595572,
        0.03193612451232439,
        0.06145764594026855,
        -0.010236506200500236,
        0.03917860998388591,
        -0.06097966388750278,
        0.04605309302417181,
        -0.04263339888100819,
        -0.014326921522272622,
        -0.02792055153780807,
        -0.057677196066402696,
        0.055580338687480774,
        -0.017835694092513406,
        0.0040025360984515534,
        -0.0007235626228299228,
        -0.050526549287794174,
        -0.04037964227609829,
        -0.05834629670131265,
        0.0012937016385006675,
        -0.03276238970236034
      ],
      [
        -0.019634096577097505,
        -0.053706214701504516,
        0.039343906152592395,
        -0.05340092156983695,
        0.06624670372291462,
        -0.044268500392785924,
        0.009945606349044482,
        -0.06284011295874435,
        0.03943845258016123,
        -0.0424559689384303,
        0.0045182547980223385,
        0.03287450125841387,
        -0.04859106396897458,
        0.007017362543387758,
        -0.03962921969065663,
        0.035567160057563205,
        0.030619754459081615,
        -0.04446985154586432,
        0.04955870214977512,
        -0.06596395832587501,
        0.04908319584076796,
        0.00815967020165347,
        -0.014140835457148167,
        0.03541588131813717,
        0.029801386047365774,
        0.06693939330050463,
        -0.030482360640689005,
        -0.06813792384735776,
        0.058837763565101335,
        0.04958717579821581,
        0.0312983690968396,
        0.0025243181176942187,
        0.028976242880295464,
        0.038511780381306614,
        -0.01639596102857499,
        0.03711092237353184,
        0.03442589530212154,
        0.01486800887937525,
        -0.013323340731116871,
        0.026232419750746763,
        -0.06825269307374805,
        0.03775995565869519,
        0.0544520040876939,
        -0.03621296950023456,
        -0.0519314341474541,
        -0.0384219463706932,
        -0.027293907336660178,
        0.05236436493288361,
        0.006318489827527359,
        -0.02931388173859261
      ],
      [
        -0.04967580012452548,
        -0.028746339085724187,
        0.015547058423788859,
        -0.023765977002544784,
        -0.0061445686137298295,
        -0.007629160044934651,
        0.0450728549034831,
        -0.010312297264576307,
        -0.02119489539039213,
        0.024144151419988567,
        -0.037838563747665345,
        -0.004561881177062923,
        -0.025752772691450425,
        0.017424955778105888,
        0.05140447374068367,
        -0.007207560847342491,
        0.0390732286055521,
        -0.005935932739151118,
        0.02136122343986917,
        -0.050570527592638165,
        -0.009449621786226351,
        0.05626524896000462,
        0.01397096481064447,
        0.03656746532885134,
        0.0006480603253317832,
        -0.000267080450609719,
        0.04710091198030283,
        -0.0593532917376248,
        0.009598244810695745,
        0.061078581705054216,
        0.0023697203309764867,
        -0.04182660899446683,
        0.048128407295844236,
        -0.03412837714680854,
        0.028055308953295065,
        0.0055175973552407135,
        0.061652401167532726,
        0.01666173366636204,
        0.04652042210465704,
        -0.06812221851218869,
        0.0672160211593527,
        -0.05800536052204718,
        -0.024432388531918255,
        0.06103610448912529,
        -0.06735450175743896,
        0.044330372304146104,
        0.049549129266392676,
        -0.008416818035878088,
        -0.033313181910885316,
        0.04156753175377441
      ],
      [
        -0.003040887333373646,
        -0.04975909455250678,
        0.05821404136456079,
        0.05668994072564088,
        -0.002854620894999256,
        0.049273301936526584,
        -0.011184167480482959,
        0.024049942838253784,
        -0.014012062273672079,
        0.001436227044942068,
        -0.04017703737545672,
        0.06350161852079791,
        -0.03008560319021333,
        -0.05446901501466798,
        -0.051389034132190266,
        -0.06687465209674116,
        0.029662420889968268,
        0.008713968814342991,
        0.039883258444661875,
        0.0009725021838617926,
        0.038648281410516044,
        0.027137182743823342,
        0.03511686136797492,
        -0.013298057466883105,
        0.020311884245657087,
        -0.043983632630076534,
        -0.024474908522539664,
        -0.04489473220435497,
        -0.01529661137770176,
        -0.03398501801861658,
        -0.013277229399514959,
        0.06611146051242282,
        -0.02270676575128277,
        0.0661963598444504,
        0.02157013131362296,
        -0.017232164342789204,
        0.04910426880394396,
        0.013969555375890105,
        -0.033498011616794554,
        0.03709630677753189,
        -0.009211603585477254,
        -0.019572344979719006,
        -0.02331325400811955,
        0.02565242534164078,
        -0.031201863902027206,
        0.04234523871703592,
        -0.028514390488844552,
        0.005165764511941718,
        -0.00025879591132252973,
        0.04875266350176119
      ],
      [
        0.05334897575488044,
        -0.04321720692703483,
        0.011562291362243002,
        0.055364937218941944,
        -0.00789276575738369,
        0.05802829196725463,
        -0.03035793370325514,
        0.014615110650917036,
        0.025061942634249403,
        -0.03714590119585604,
        -0.0660734199888619,
        -0.011546079654556124,
        0.05970223981234216,
        -0.0215617457800552,
        0.03769102443485683,
        -0.044716156441377976,
        -0.021709445947446452,
        -0.04886049549808397,
        0.029607384146679846,
        0.027377005587017215,
        0.025475235863433473,
        -0.03380200439376406,
        0.025537976381028647,
        -0.037589877812685545,
        -0.0103461680695337,
        -0.017592848309761294,
        -0.019874985404466597,
        -0.06073858600879602,
        0.017285860760465618,
        0.028922257839603355,
        0.0154598285755716,
        0.020614546328127484,
        -0.04476417691270278,
        -0.048175068722716305,
        0.002773327622647339,
        0.05153426240914793,
        -0.043412330326517104,
        -0.005817464581663692,
        -0.009598546919898601,
        -0.0012808585412789823,
        -0.04649506805442751,
        -0.02164244080547979,
        -0.032708239586223174,
        0.046901209258647866,
        0.0414211037086656,
        -0.010076885854685058,
        0.014585028446389248,
        -0.04895871053392098,
        0.0017268700156264122,
        -0.02790866724992896
      ],
      [
        0.04940185419208063,
        0.023684930004149486,
        0.018198748660852526,
        -0.05098431377417699,
        -0.004452505442929374,
        0.06690324349690742,
        0.06157862286247674,
        0.019648710687875156,
        -0.04783926462382085,
        0.01926825779518108,
        0.00962012348140748,
        -0.004394084238632098,
        -0.010327870622337339,
        0.013635748622470602,
        0.04745531829990974,
        0.0344624355945495,
        0.010901007772844081,
        0.05830214734584945,
        -0.0599288777210841,
        0.06749162859507395,
        -0.061750796986842924,
        -0.0412173183929777,
        -0.011353298944379054,
        -0.0540230153650242,
        0.01699085312045109,
        -0.06208799176810058,
        -0.029584183001210906,
        -0.06027761614283059,
        0.027286426788701697,
        0.023512843515238094,
        -0.016798073154388915,
        -0.0426265052911696,
        0.034409609013856014,
        -0.0219447984681939,
        0.04125620957622145,
        -0.0016801039864256567,
        0.0035259690942952364,
        -0.06536521574707091,
        0.019948890862230954,
        -0.021276429017834324,
        -0.03719654744385874,
        -0.00908181606540283,
        -0.016144335170265055,
        -0.004504997238658362,
        0.06600251770365027,
        -0.018629103374886904,
        0.037596879090948825,
        0.007030239293709798,
        0.05379234768309853,
        -0.01993819848252284
      ],
      [
        -0.034955695046184336,
        0.05651897148115698,
        -0.06277290778511647,
        0.0622158981558093,
        0.007527040859630628,
        -0.016946728280346945,
        0.06800066120481438,
        -0.060813794065582044,
        0.002294794831292493,
        -0.06432423828972213,
        0.010098700765347357,
        -0.043939260827163436,
        0.017751174866200772,
        0.0660599424835899,
        0.05116628514914505,
        -0.0066327832676946795,
        0.02863430057628827,
        0.03809425973428237,
        -0.0007840966287338691,
        0.0039193760154232786,
        -0.04815596394829622,
        -0.017907067055107265,
        -0.049542657340081876,
        0.031107181542429457,
        -0.0031556765241764527,
        -0.007022031305850492,
        0.05302089512263873,
        0.00380371365854566,
        -0.01284593355941469,
        -0.03154488576913088,
        -0.05885288923090271,
        -0.011135906814225912,
        -0.06488503549684964,
        -0.028697505559393568,
        0.0008537324420839198,
        0.06399108565739213,
        -0.05365537926825202,
        0.02344827609006985,
        6.418857566249569e-05,
        0.03765369743695239,
        -0.04895434017724216,
        -0.05725151672224505,
        -0.013843388191363807,
        0.04060053096776325,
        -0.04227633497820926,
        0.03678202343450491,
        -0.028856367120563175,
        -0.03900474915713768,
        -0.06620141198978054,
        -0.013927987624262561
      ],
      [
        -0.016334712224612954,
        0.021974298089299286,
        -0.05904159270280689,
        -0.04729341856644245,
        -0.06671645260923986,
        -0.052998036656255784,
        0.020849859028468094,
        -0.013583885658712436,
        -0.024583924619080075,
        0.008074532925809624,
        0.06823797235011031,
        0.04587693672448436,
        0.027084063824498055,
        0.05745223147562578,
        -0.0636912339132534,
        -0.05904328931892763,
        -0.003570510405095509,
        -0.020745358005951575,
        0.05995392095523093,
        -0.0014333627170430667,
        0.00518065993359251,
        0.054338829774614135,
        -0.007893854743916344,
        0.05170599610677408,
        -0.03384555387107093,
        -0.03106962432311374,
        -0.023576374527789944,
        0.006547593823310718,
        -0.038951137856923654,
        0.023831182049087917,
        -0.04915706992516137,
        -0.055600300561818326,
        0.051214744900661226,
        -0.03615844086465673,
        -0.01513219265244755,
        0.009813269971358311,
        0.003544172884184243,
        -0.05869183275330064,
        0.05149420716525871,
        0.061389472123684424,
        0.04292617639849183,
        -0.0296970997033512,
        0.0038250513390376177,
        -0.022327411971273754,
        0.007615711822759898,
        0.06516432326085286,
        -0.025937645760524312,
        0.023020570374028368,
        -0.023646351803979584,
        0.03769138777663912
      ],
      [
        -0.023926839469458953,
        0.05368739197373411,
        0.03440806928009602,
        0.03676500453211086,
        -0.004700302228030459,
        -0.03964662192361705,
        -0.06298323704524438,
        -0.02481892813207704,
        -0.06358246079730863,
        0.026822316626541515,
        0.02413919175804167,
        -0.009661278224062219,
        0.03623801208918044,
        0.0049461467824468055,
        -0.06396461666194186,
        -0.05020404569861167,
        -0.04211249324724451,
        -0.02261697361935874,
        -0.06166857969800878,
        0.014438899193467164,
        0.0012258286800059658,
        0.016208572536147138,
        -0.010206145847636076,
        0.04762459523081454,
        -0.006306265476701212,
        -0.06656444093822951,
        0.05124484751226135,
        0.021478872292479915,
        0.04354387110159797,
        0.06251626547252595,
        -0.061834503317933276,
        -0.036140304579513394,
        -0.05938716658565829,
        -0.010784772795029639,
        0.05082979821673746,
        -0.05749073838191709,
        -0.003693357044821632,
        -0.05217261296474413,
        0.03765255849296634,
        0.045958880631080994,
        -0.06273380970082171,
        -0.0018625070285549562,
        -0.03579464331684605,
        0.06171461286074519,
        0.06114626424124882,
        0.015650037675337788,
        0.06491995969352393,
        -0.02157833585194848,
        0.05506904574769637,
        -0.009001855883311182
      ],
      [
        -0.036288647773067076,
        0.06060720395699133,
        0.02523925695704161,
        -0.05949480696123235,
        0.05068353293031189,
        0.027694072891721717,
        0.014412813390494873,
        0.03178440870907308,
        -0.03386774969176311,
        0.013879021753235058,
        0.04350499748905712,
        -0.06129045421331699,
        -0.0509662049682035,
        0.047038546135539656,
        0.01595963157222393,
        0.004282480047876588,
        -0.03457492488613024,
        -0.02816516074543267,
        0.05112445525041066,
        -0.01076001057809792,
        -0.0599982635681294,
        0.054558993960851024,
        -0.04110066949457784,
        0.04475782143805885,
        0.05244186653951994,
        -0.001819925030484275,
        0.013525164784214195,
        0.003754426305528283,
        0.016823932927714003,
        0.048948295633714375,
        -0.0299830427354687,
        0.052810582807567064,
        0.00952911017313361,
        -0.05287889208912953,
        -0.03716596598839719,
        0.01317546049154563,
        -0.03578980921888813,
        -0.050916584876432996,
        -0.04638289076628065,
        0.04700538956616956,
        0.014036003297987702,
        0.06367583186490722,
        -0.021197588739577826,
        0.012964395713036227,
        0.013664163306162233,
        0.01589320497866627,
        -0.060597922923684315,
        0.03427895557089945,
        0.06173024048567992,
        0.004756593373145768
      ],
      [
        -0.042230675254106884,
        0.03481470558239287,
        -0.06776112582345459,
        -0.023234120738558572,
        0.05709994375093822,
        0.012181074717571495,
        0.048789134136132783,
        0.014199258527806008,
        0.044309513705956996,
        0.05222652148640533,
        -0.024206782014574726,
        -0.051848469139640446,
        0.03011615340280685,
        -0.008193957194469062,
        -0.051664609418863965,
        0.012318042005351996,
        -0.06372591328135069,
        -0.041205732438190174,
        0.039511199711581825,
        -0.06701865929274466,
        -0.027235396286717097,
        -0.06570575824327637,
        0.06786185450100027,
        0.011197482377511484,
        -0.028379772468942747,
        0.05892073567973389,
        0.0009779279620132804,
        -0.0062116356871139596,
        0.011643908296579762,
        -0.0321602198668066,
        -0.026822034282781484,
        -0.017500108160596092,
        -0.03479647193340898,
        0.011601224244722201,
        0.027343229965592138,
        -0.05880914013377516,
        0.0647082657156937,
        0.03438074999093453,
        0.04214206517101665,
        0.03407979142520744,
        -0.057683056765260116,
        -0.0025142087025967906,
        -0.007462392800289878,
        0.023464699427643308,
        -0.0069520417494512285,
        0.028064601570723435,
        0.024889600452344368,
        0.02694161418984021,
        0.016508311339385084,
        -0.047950678193492524
      ],
      [
        0.03582396985602425,
        0.038880083719546224,
        0.05518106131696009,
        -0.03521730566623081,
        -0.04540749189581154,
        -0.014796085178580765,
        -0.02464733851603985,
        0.042657160991046675,
        0.015593980460183909,
        0.036094825758523366,
        -0.008485347940144291,
        -0.05523840577873447,
        -0.053948861551994874,
        -0.017388866504070094,
        -0.04354248994292693,
        0.043981395356850445,
        0.013686057305231878,
        0.02585427743039252,
        -0.0015623899337692737,
        -0.05656869125420093,
        -0.037234742356613115,
        -0.005129138892535824,
        -0.04319471280907639,
        -0.0654469901670919,
        0.03151844589069426,
        0.030894688978874166,
        -0.023297483665368282,
        0.04722752587752648,
        -0.011444869716762257,
        0.05099565484374121,
        0.02128522352925932,
        0.01162202358477562,
        -0.03994702860717941,
        0.004012153480035127,
        0.055854006082527115,
        -0.026830011558254457,
        0.050953294340260545,
        0.05470037262551654,
        -0.023041586005045495,
        0.023305919812567435,
        0.054837210759924114,
        -0.058282511342176185,
        0.05200303858873203,
        -0.043324190295477266,
        0.04838352203162152,
        0.02295552938242567,
        -0.02161406776134833,
        -0.04841352460010395,
        0.019418254976057574,
        0.04773748555843585
      ],
      [
        0.04420940838919429,
        0.017766080441232898,
        0.062498700299397573,
        0.013093279493176133,
        -0.042051835293992416,
        -0.009618031894122607,
        -0.02242466004441404,
        0.06720274047077655,
        -0.016450781230054928,
        0.06788644687781552,
        0.003378207597108236,
        -0.04513499011484428,
        -0.059023250921719,
        -0.017814881740589202,
        -0.052543819881202304,
        0.01843561538694365,
        -0.01182401767020288,
        0.06738550962711157,
        0.05887186535686384,
        -0.048181132889267377,
        -0.014902193664891126,
        -0.005197820409594361,
        0.007388968101297432,
        0.03836498578861845,
        -0.0017545284409685009,
        -0.01098973001125622,
        -0.03269185238755443,
        0.05645321877405916,
        -0.06650679108222077,
        0.044604059735737604,
        -0.04295078964742378,
        0.02578479966586787,
        -0.01925192852480859,
        0.06511268021328394,
        -0.05089821902525108,
        -0.042939626028825034,
        0.053494034141069714,
        0.010664512691999655,
        -0.02602053139002211,
        -0.06958469206349349,
        -0.03741732554702577,
        -0.04870755322033,
        -0.04073649415182977,
        0.05396887606489849,
        0.05143433344453804,
        0.027511868093177905,
        -0.004179867580585403,
        0.044647069118025184,
        -0.00012176672328290553,
        -0.01877038777643781
      ],
      [
        -0.030823282097680715,
        0.05838520970380451,
        -0.015573722519469367,
        -0.0007688689017460078,
        -0.03388444508563508,
        0.052904345089002346,
        -0.016034996233321837,
        -0.02790987236606998,
        0.029888964532407955,
        -0.042403414360709116,
        -0.05222107003747974,
        0.04625661076681168,
        0.03336929190627974,
        0.012433952563925916,
        -0.03554672894890838,
        0.016917469253868524,
        0.01900456349169345,
        -0.023698388551812888,
        -0.05946264571120943,
        0.05227099254086783,
        -0.005630944201089223,
        0.03626814749620846,
        -0.034083126762490944,
        0.012511859823893077,
        -0.00977946096942911,
        -0.01619472104362629,
        -0.05127485635736321,
        -0.0351207204584475,
        -0.058031588393964974,
        -0.026940057118893853,
        0.03315598118498363,
        0.015874498705959406,
        0.023861956548761425,
        -0.06753594165328033,
        0.024760772450470182,
        0.00043012008210118494,
        -0.03696256429066793,
        -0.04487974593721001,
        -0.043219746989809835,
        0.04700316365901758,
        0.06628880076429292,
        0.05683150403764916,
        -0.020965420959308596,
        0.038359238180152404,
        0.006433433920010395,
        0.043466703004981476,
        -0.0022711960123299297,
        0.012274420177382629,
        0.03958596284959703,
        -0.0549173806661796
      ],
      [
        0.005083318067371432,
        -0.018290689851135446,
        0.014187786663911647,
        0.06360022824343069,
        -0.015148188489617872,
        -0.014631690319391813,
        0.039922058422612754,
        0.01963830324507771,
        -0.01457615145838333,
        0.026117982560272764,
        -0.012565481705806939,
        -0.05007672718903715,
        -0.007237602133433831,
        -0.022744243933810596,
        -0.03937739177060521,
        0.05845190893544144,
        0.026048972898384044,
        0.013537447546630901,
        0.03373494108823923,
        0.005765168292597361,
        0.0271837061912882,
        0.05920409442081263,
        0.04904173514038473,
        -0.04579428863352159,
        -0.03253182317354218,
        -0.058843849299929855,
        0.06575076165228864,
        -0.0361911722536488,
        0.02136831135033215,
        -0.055982398676217265,
        -0.039852523545456424,
        0.0005980891085694062,
        -0.0537667471717186,
        -0.015284265390896492,
        0.00593477693862859,
        -0.022105782625696648,
        0.007678483963341545,
        0.004431964898869572,
        -0.01488409831052562,
        0.02617164049140797,
        0.024516448742165277,
        0.02572806434483899,
        0.0084464733685453,
        -0.019861351378133427,
        0.01568230648369028,
        0.05985297493459297,
        0.013209180872519008,
        0.06565150695836808,
        -0.0077508248647630605,
        0.03289830520171325
      ],
      [
        -0.06351498734881227,
        0.036486957378667854,
        0.002364135428073834,
        -0.06734144455577425,
        -0.03105207033491551,
        0.004857742416208159,
        0.03680752938472741,
        -0.061692055792697424,
        0.006738008217894267,
        0.04151615233205303,
        0.021199568384169015,
        0.059166000999496884,
        -0.05889654601546096,
        -0.030657987923557527,
        0.05691655314261624,
        0.03636682035925095,
        0.013700388962629106,
        0.04569816442377054,
        0.054247195704975736,
        0.06493312950655283,
        0.06809687726027026,
        -0.049432619799710524,
        -0.059797442498314694,
        -0.058708617474190386,
        -0.06665134882554902,
        0.06480946656427386,
        -0.05566304081308449,
        0.04696140124405132,
        0.024708426949059066,
        -0.0013031925084993124,
        -0.021188288769317835,
        -0.019882113172604795,
        -0.03329029860865523,
        0.05643678375765108,
        0.031747910641379856,
        -0.06513883934046938,
        -0.005285461967263439,
        -0.030690856217927776,
        -0.06455249335222213,
        0.05201156800146034,
        0.03722544607788393,
        -0.02338768382434646,
        0.040735451847145006,
        -0.024473737136814055,
        -0.02623679655204743,
        0.058805300151468884,
        0.06540488520139333,
        0.0029987507631081965,
        0.06244868516654001,
        0.05327972103335592
      ],
      [
        0.002476962648801324,
        -0.01734702232627767,
        0.02873752839470543,
        -0.005443482136892017,
        0.013973893783380523,
        0.06744054133705707,
        0.0376252878155855,
        -0.02308891979803963,
        -0.05645543204075455,
        -0.043098676427880483,
        0.004384921424287415,
        -0.01149121646899067,
        0.040785069903166465,
        0.05950491312307628,
        -0.044963760998792054,
        0.04942222827511826,
        0.06282802043020244,
        0.06307202926619697,
        -0.0636433066108183,
        -0.06077057472311433,
        -0.06828961524499202,
        -0.025660490444022004,
        -0.06189048235691348,
        -0.02844295554336211,
        -0.01977369339855651,
        0.062317326548208714,
        -0.0031660340540458688,
        -0.030439691416358376,
        -0.00036300050386918394,
        0.020124910761378314,
        -0.053538454945024835,
        0.035683214876316455,
        0.04890103723187012,
        0.04726407883017549,
        0.05444429400124989,
        -0.016251261543351995,
        -0.007718949078543134,
        -0.0554208765255746,
        -0.03750435028609657,
        0.06385672570032051,
        -0.02958417091873025,
        0.05596015975398598,
        0.05364647838291535,
        0.0576236082437933,
        -0.04706867663062586,
        0.05215884395854962,
        0.018019302907074992,
        -0.04000097439289828,
        -0.020879488655785657,
        -0.046730488221820896
      ],
      [
        -0.0076443679186243355,
        -0.05705652700559118,
        -0.04611007478276619,
        -0.04102195764295597,
        0.025818885729336067,
        0.010206294322003418,
        0.0512798724740892,
        -0.03536317775973079,
        0.017803020724451533,
        -0.06378989031423223,
        0.0028378516255268935,
        0.049801174071472956,
        0.06604792141163453,
        -0.06732411958490224,
        -0.03457897487503517,
        -0.03796448922413414,
        -0.062150486674734516,
        -0.06731915008876904,
        -0.0014909404911871008,
        -0.06243282422709622,
        -0.030805887656383223,
        0.019288333778812145,
        -0.02895871184224267,
        -0.03175279183975111,
        0.012441006139569152,
        -0.01640990532637679,
        0.02781867612196902,
        -0.0005134130481760453,
        0.01761513959959634,
        -0.019756708210963484,
        -0.029374007974004777,
        -0.05017548109814204,
        0.06052816478458449,
        0.04185282486184167,
        0.060875268924728096,
        -0.043234841152038926,
        0.05949851550535397,
        0.059244807489739676,
        -0.029592587268401513,
        -0.03173422461877215,
        0.007064669447601836,
        -0.043228844397883916,
        -0.007953023514365753,
        -0.04358728972792795,
        0.06159504672721065,
        -0.0008482484675321323,
        0.06362581681863883,
        0.019686937841459962,
        -0.0018064480805158962,
        0.06422814579705138
      ],
      [
        -0.04901164922082293,
        0.018266472924608822,
        0.022130836276282158,
        -0.008648084811130215,
        -0.060850752481700264,
        -0.0009467596348454322,
        -0.004789220830583351,
        0.04191481541227687,
        -0.03342518120496308,
        -0.014789358191230673,
        -0.035218434490032306,
        0.025539304611477475,
        0.06694280723498071,
        -0.04430845748679449,
        0.04366988517336429,
        -0.03697644078163959,
        -0.06071668711127144,
        -0.049640199150651466,
        0.05966191862154979,
        0.0533703585295664,
        -0.029221994177854864,
        0.06155233738312682,
        0.0474836488670395,
        -0.00906238788054906,
        -0.004386048098539508,
        0.017836682969981425,
        -0.04697293656473097,
        -0.0666351756544938,
        -0.032734726817202534,
        -0.06626560001669998,
        0.02387517158507167,
        0.007229406594911681,
        -0.024120951964063983,
        0.03847366643671942,
        -0.04811064321296444,
        -0.035057602706175646,
        -0.028527896683201496,
        -0.04223681990343642,
        -0.056493329529617255,
        0.05022145734941131,
        -0.056566635745635585,
        0.025234553485182026,
        -0.052141945813882366,
        -0.06748953449548153,
        0.007976641849211279,
        0.055920725321815884,
        0.049436960195273355,
        -0.02236152284042462,
        -0.06468193040511838,
        0.041314869077428956
      ],
      [
        0.04203025978364104,
        0.050682482949748864,
        0.02322357514612827,
        0.042604374223387705,
        0.054359257509160756,
        -0.006302543414359563,
        0.007942915747579486,
        0.0006781469054061831,
        0.026371015464878723,
        0.025216471771097718,
        0.003141796383907474,
        0.04506590231995581,
        0.0005346182860455249,
        0.044622752067627176,
        -0.030326745604781227,
        -0.04418067001985411,
        0.06454168180275092,
        0.033212202251209105,
        -0.03307783554511214,
        0.0111585316131799,
        0.06233035394649161,
        -0.057552686469122934,
        -0.057640459131594615,
        0.016299936235042906,
        -0.03784172901768677,
        0.036425815181683044,
        0.009361471049021915,
        0.022838588004975242,
        -0.05426240380391391,
        -0.05688450333833316,
        0.017116580792942013,
        -0.012280406981114612,
        -0.056413844628318596,
        -0.01772196773848822,
        0.02405161854279941,
        -0.04264907843210444,
        0.05435756954092292,
        0.06144098008243408,
        0.06348208035574711,
        0.031158100459589243,
        -0.012872273479351978,
        0.03348152462290865,
        -0.029122239696387792,
        -0.02569958924697612,
        0.014628144443235572,
        0.013028254780515124,
        0.05195676441525791,
        -0.03383570109789375,
        0.036763357099082024,
        0.06056937644670757
      ],
      [
        -0.06853839274681567,
        -0.0031175814321565427,
        0.02137326336578066,
        0.047978082121302605,
        -0.044044874958202626,
        0.04902070262070902,
        -0.01863083281447954,
        0.053473009842339804,
        -0.06487377697614548,
        -0.05672039788244886,
        0.06700531884234774,
        0.014909621485792095,
        -0.011961986046337419,
        -0.04543692281195781,
        0.019688596537030097,
        -0.06364770340043305,
        -0.025876817193646748,
        -0.024298842979544277,
        0.014551613019894622,
        0.02071826496205117,
        0.04702259341575401,
        0.05882070255087699,
        0.020954653107151246,
        0.010576833044796683,
        -0.013907492118848995,
        0.06409415044488409,
        -0.04751587656183846,
        0.05429658483354373,
        -0.026937831568645286,
        0.007206850398206385,
        0.024833475772636584,
        -0.03590136668070499,
        -0.04493662955246713,
        0.0011370025247580428,
        0.04110471311596533,
        0.02640358518853206,
        -0.0523380334556848,
        0.054170998687590045,
        -0.0025827653335522066,
        0.06024065518566428,
        0.007339683487065675,
        -0.05703185175402592,
        -0.04086984222476877,
        0.048138881488217336,
        0.02849164283152715,
        0.05424911124427467,
        -0.023609352406435722,
        0.0035275655050860982,
        0.021157568565868333,
        0.012930724478630485
      ],
      [
        -0.03688639991706255,
        -0.009888646974351104,
        -0.034793141118550405,
        0.04827511836014306,
        0.0662602166552097,
        -0.05943973742413096,
        0.029385273006422453,
        -0.02373648673521295,
        0.017229873043218717,
        -0.03299780434816571,
        0.021601949792686953,
        -0.01782806366845589,
        -0.028817387687920686,
        0.05656001761378067,
        0.059899538629938465,
        0.01555195711133185,
        -0.039220863780719,
        0.0603080960660746,
        0.03420025425488923,
        0.03448983501191288,
        -0.04009868031200105,
        0.04543652368841411,
        -0.03676303589622118,
        0.017921813814239403,
        0.028952192605753074,
        0.03329392216017769,
        -0.01507330095832294,
        0.0357164116531543,
        0.05439023426918119,
        0.01254257709624161,
        -0.056432994602638,
        -0.05067320319038744,
        -0.05353336372721508,
        -0.044981819312893356,
        -0.050321520773280615,
        0.03820156868425235,
        -0.06326668980522211,
        -0.036355875562693256,
        0.052264917017020435,
        0.0639518920347709,
        0.01448082537438884,
        0.06541635180726679,
        -0.06271174911114534,
        0.061108024871896996,
        -0.02571958169474436,
        0.04106707495241975,
        0.042530485216580836,
        0.04913779527928091,
        -0.0052055017525777375,
        0.059132890797576554
      ],
      [
        -0.033255953761606866,
        0.05973738781765737,
        0.016289137414099694,
        0.06698395432472823,
        -0.06441941429844929,
        0.030965444106857042,
        0.009004566082185554,
        -0.0011922882567293644,
        -0.03307393162912724,
        -0.023701313357837716,
        -0.03408902949921996,
        -0.03861020585727243,
        0.040921898800535254,
        0.00032897933677289133,
        -0.057586903857207654,
        0.03802955898509729,
        0.00462205572900518,
        0.03286325945077983,
        0.0020380362550964136,
        -0.013743483301119092,
        0.06660185371895468,
        -0.06476832129123986,
        0.05904298819483074,
        0.05912285307963205,
        -0.014981617740381387,
        -0.039221263458361806,
        0.01637520463607434,
        -0.04422382096501397,
        0.041286883365037344,
        -0.033597670362659274,
        -0.02879980992157272,
        0.057240404107026625,
        0.055605024762213365,
        0.004849547202515068,
        0.05021491234330762,
        -0.020266037570624673,
        0.06838966023390033,
        -0.009432160376981545,
        -0.02811056865358937,
        -0.06338211769577502,
        0.06726641841967387,
        -0.004823054466610523,
        0.03222272746604508,
        0.019149259862807487,
        0.030720194866712406,
        -0.06165965488905661,
        0.057645602049172746,
        0.05851324383731663,
        0.0073265820924017615,
        0.0637159308980818
      ],
      [
        -0.030088068767214697,
        0.014161931127675638,
        -0.014377342070768347,
        0.01822852359079944,
        -0.027858915880728224,
        0.043944576060584765,
        -0.05909443628719403,
        -0.06324989229073788,
        -0.061895162195048016,
        -0.047832565055390935,
        -0.013684812999143573,
        0.062449255655644444,
        -0.053970172236769226,
        0.020267959860995367,
        0.003085826903387069,
        -0.02019509752935035,
        -0.041455521027313716,
        -0.03842006824197242,
        -0.0628232263477166,
        0.029280321424254237,
        0.020729764401724474,
        -0.007654746341731266,
        0.02922087308912277,
        -0.05370049261039455,
        0.060266632786532486,
        0.04775019733073685,
        0.021845226301182633,
        -0.016622424382040788,
        -0.012228852728564702,
        -0.0020222830061687198,
        0.059653196911344936,
        0.050176808854151565,
        -0.0024801276299831073,
        0.0074666305325049405,
        0.05236208932342,
        0.06169034425911723,
        0.01911849516017036,
        0.03344960525937439,
        -0.020223435191995768,
        0.05654490066868859,
        0.04625644809408864,
        0.007150424678663285,
        0.05049747714058484,
        0.04765067147153937,
        0.0425248149470274,
        -0.050728238199148554,
        0.00483479909823917,
        0.05480149491589612,
        0.037593321550704155,
        -0.010907464189924825
      ],
      [
        0.065641915528748,
        -0.03411472129610741,
        -0.02299679708357223,
        0.06297449585934564,
        0.04197430775611031,
        0.055061292463510624,
        -0.06708832452803161,
        -0.01680857458655117,
        -0.036328850533832974,
        -0.027865658964518522,
        0.03331897072948423,
        0.03068636104470447,
        -0.005710252959187826,
        -0.018505974632751877,
        0.0109887891171048,
        0.004596999949307183,
        0.006947636241218399,
        0.01582494444580103,
        -0.01448149246917395,
        0.037323401248814086,
        -0.0345404957685028,
        0.021458231977729045,
        0.0624644241757486,
        -0.06830717095621877,
        0.030684567533605316,
        -0.0537086587161529,
        0.00601467410873142,
        0.017452721263024894,
        -0.036008141478110336,
        0.05723625051233558,
        0.01667568689114806,
        -0.03664211160668921,
        0.03760803973222356,
        -0.05420784001620538,
        0.00831047016684864,
        -0.05565604670707124,
        0.011124017079527586,
        -0.034556181698257644,
        0.020674114906277814,
        0.028849266523532972,
        0.0033221494135061793,
        0.02163722781283551,
        0.04303421612657186,
        0.04186886586800894,
        0.01658632329449819,
        -0.006716592887321298,
        -0.01274462129445724,
        0.05124778424728471,
        0.028231252520872836,
        -0.04329259161375638
      ],
      [
        0.009029004069876638,
        0.0562202377527503,
        -0.04805986697208064,
        0.04778519800968953,
        0.04374407106223825,
        -5.146728912917671e-05,
        -0.06351773829113813,
        -0.04858177756587942,
        0.05805388520101232,
        -0.06252371155546523,
        -0.017165354423451525,
        0.01629916793235312,
        -0.041884253035754056,
        0.06608138192347043,
        -0.04761299443536768,
        0.005431983806118893,
        0.016210100878449398,
        -0.036971924683470776,
        -0.004709748263427649,
        -0.0012350734186553486,
        0.036453516941274786,
        0.018479745352526885,
        -0.004887851540314771,
        0.022867420494157124,
        -0.006402121491635082,
        0.003531758428245844,
        0.02178099401892093,
        -0.04378037884144051,
        0.0391787266266094,
        0.014346245098967142,
        0.06590931472700062,
        -0.03801573052025025,
        -0.004354854845778847,
        0.05433444025623679,
        0.014335001111520387,
        0.031027297785683798,
        -0.011858314063193643,
        0.024969908920689735,
        0.06134985171380895,
        -0.04162468996635029,
        0.04221986289508367,
        0.06449600141803953,
        -0.06667910788422363,
        -0.039324902048516394,
        -0.052475908842573124,
        0.036733442522221944,
        -0.05758012309537254,
        0.06833600516101591,
        -0.014965206197517126,
        0.055650503581564245
      ],
      [
        -0.042777152879444225,
        -0.008010545259460758,
        0.04723154706536657,
        0.013632623175445571,
        -0.00560030496998836,
        0.001803260945012063,
        0.010148956898951976,
        -0.008471241345958143,
        -0.04209291130402815,
        -0.05287202995689833,
        -0.047321526178725155,
        -0.06155788692412052,
        0.007627638125408039,
        0.047763151089836205,
        -0.01995305204556093,
        -0.05836644580274898,
        -0.010202535910797499,
        0.01397726886860253,
        -0.010384474436010208,
        0.042680840756067005,
        0.06035644481563728,
        0.0508698128868112,
        0.027297142666421435,
        -0.0041872689253722875,
        0.025098837491682537,
        -0.06683713037840558,
        0.06627346160093296,
        -0.04502546794603071,
        0.055151469592575934,
        0.04254922987850194,
        0.04111045754313326,
        -0.03154075572592598,
        -0.03810809956052018,
        -0.00979871434790261,
        0.048666269602366884,
        -0.006833604238054133,
        0.05980954803818449,
        -0.02081982242975593,
        0.016533510672168187,
        0.06528527257305677,
        0.019706091518549757,
        -0.062430616792129134,
        -0.00500581817251426,
        -0.023045134339260056,
        0.004557448447188927,
        -0.029567380013467776,
        -0.05198029379181187,
        0.022903669511387816,
        0.025244392859356268,
        0.05041637019030278
      ],
      [
        -0.050496281667246304,
        0.04109007724418671,
        0.04480041382925991,
        0.020480830887997698,
        -0.040790286204708016,
        -0.03272922315865623,
        -0.011195322287239419,
        0.005566027264129912,
        -0.003099134916916272,
        -0.004370980826899004,
        0.0470568308630375,
        0.050781112958937384,
        0.0432321018165426,
        0.051895012126977315,
        0.009367662540102281,
        0.06372041945322068,
        0.014634990690347516,
        0.014256121384187661,
        -0.024909843799648092,
        0.024890307098884054,
        -0.06176130078792234,
        -0.05016125250330411,
        -0.05125505831342401,
        0.021249527832049694,
        -0.0445943556662445,
        -0.02182016034656752,
        -0.06259360335946412,
        -0.03656273249430823,
        0.06334718634264926,
        0.0014893111179128584,
        -0.04800362680551967,
        0.003287753134570516,
        0.061221778984207734,
        0.05021880641689457,
        -0.014391705925529099,
        -0.02969945413331324,
        0.03595135891102883,
        -0.03602191101271179,
        -0.033672941183229194,
        -0.05760754442598645,
        0.050019034555342214,
        -0.0071566338090661525,
        0.008486994980650038,
        0.03229235576373678,
        0.04081379104004402,
        -0.007210311103408537,
        -0.0434486751947365,
        0.04501847003670683,
        -0.06420882635888377,
        0.06135380056501136
      ],
      [
        0.010573719629997284,
        0.05166994365695604,
        0.014786476829466018,
        -0.03359013272619002,
        -0.02838815445609978,
        0.004585027742938776,
        0.06347131926070933,
        -0.04359916543884007,
        0.0013596467044257664,
        -0.021310340134114623,
        0.03760958974294289,
        0.04151801074921321,
        -0.010775479615033827,
        -0.04064189728662763,
        -0.06003971264651108,
        -0.04142338013966502,
        -0.03126314529286051,
        0.013536652503327704,
        0.05111522656408731,
        -0.05106640416219039,
        0.06261092603255665,
        0.025216506697565186,
        0.03254417758245451,
        0.06622603549961582,
        -0.011521259290222775,
        0.004338322369468355,
        0.02461679010451446,
        0.0017859008760711256,
        -0.028217728750253548,
        -0.053856326003984226,
        -0.029653542457598353,
        0.037119281718619494,
        0.01978624106151593,
        0.04137304661466849,
        0.002998096856390616,
        -0.03681582645535439,
        0.01757692116804379,
        -0.02747975460143432,
        -0.0644963965361733,
        0.054691023095585906,
        -0.010938080136357518,
        -0.010146716916848078,
        0.033138471993951514,
        0.061269399510386735,
        -0.05858861551656832,
        -0.04495795982424627,
        -0.024490790069206018,
        -0.03475973973436533,
        -0.000300875710905059,
        0.04455449024938225
      ],
      [
        0.048621846980943295,
        0.013233657674825773,
        -0.03577338804389066,
        -0.04271790737096738,
        0.033177723698502616,
        -0.03605486649812429,
        0.0054244906515822375,
        0.03406834316849064,
        -0.03732785351221078,
        -0.044613364398356815,
        -0.06285142293825662,
        -0.04846568585297729,
        0.048000415978226324,
        -0.054307430153948746,
        -0.03834088195656371,
        -0.06420028665628565,
        0.024224445129112173,
        -0.03687528521861449,
        -0.011956303683655304,
        -0.049545790897203616,
        -0.01708142491670221,
        -0.01034219700961862,
        -0.004171811059362899,
        -0.010666510340580512,
        -0.05456346968502298,
        0.03744177640607586,
        -0.04983358431136501,
        -0.010387745084709464,
        -0.03173716143209786,
        -0.027103090205021718,
        0.02360985755459929,
        0.002568660441685578,
        -0.04227304038482542,
        -0.004251565281411808,
        -0.021612784855044476,
        0.028078634874693996,
        -0.037623714709086604,
        0.047018431642266476,
        0.003687531140377008,
        -0.00038547608972107133,
        -0.03383385399875904,
        -0.04310983104260636,
        -0.0038709491517184024,
        0.06596446019101468,
        -0.05033754510845543,
        -0.029743720221330178,
        0.04123683957675961,
        0.022499343030082875,
        -0.030179371107618008,
        -0.025469019944371223
      ],
      [
        -0.010995952115824156,
        0.014202528814490432,
        0.030029236326217214,
        0.04948978982509292,
        0.024575034135409474,
        -0.03607889554049628,
        0.05847720853938939,
        0.03841952285984128,
        -0.026458186539375126,
        -0.026674337323532218,
        0.05279815231919943,
        -0.051428089497563986,
        0.018007257617178567,
        -0.03053350219184381,
        0.04449202035304791,
        -0.018632379595013435,
        0.03205529599716851,
        -0.04227565575265476,
        -0.0026522649585585642,
        0.04170192604691363,
        -0.014406403990235739,
        -0.04644226289825212,
        0.01991958849313592,
        0.03471612527393556,
        -0.030190354905861663,
        -0.006680961681667692,
        0.05500588441305828,
        0.05110981691091324,
        0.02796859826983729,
        0.012760211996484683,
        0.04350790088955735,
        0.056143424081504446,
        -0.06798309022197169,
        -0.014130941672457905,
        0.00894395558372247,
        0.032118483096741084,
        -0.056664969884126754,
        -0.01420869771564845,
        -0.030170789217411797,
        -0.011066036138673222,
        -0.00027765613562770605,
        0.021979779735593383,
        -0.0005170060358362041,
        0.016287026284243413,
        0.011426986491537564,
        -0.009844301501898432,
        -0.06806732223605094,
        -0.04212126549454285,
        -0.024446316559602225,
        -0.048501873661485125
      ],
      [
        0.013552525427151388,
        0.015391732732294952,
        -7.745791203926167e-05,
        -0.024234685075340216,
        0.020776474943457596,
        -0.042497912349977955,
        -0.06787246208012518,
        0.03208475752596431,
        -0.007760343569164231,
        0.027280851207905948,
        -0.04286187101928826,
        -0.06013882885404913,
        -0.017038632582111166,
        0.026922189236798063,
        -0.05496851152671505,
        -0.041801518049674,
        -0.006325089445678791,
        0.01661746850793918,
        0.034262931187818195,
        -0.053607013643053716,
        0.01688496540429983,
        -0.015432102211447472,
        0.02286834960397509,
        -0.040792635829002125,
        0.0038372209260216076,
        -0.04503193303964089,
        -0.06611424361779376,
        -0.001780094453606664,
        -0.04382786822852001,
        0.019252149691906247,
        0.0049439955752084595,
        0.037902272244294065,
        -0.014382289515948275,
        0.06721860132135787,
        0.0025525130946974692,
        -0.00292095061415972,
        0.03426355594811441,
        0.009585277383902188,
        -0.01880038128108179,
        -0.0019860162009742496,
        -0.04270012500392074,
        -0.014617441156078945,
        -0.06456471402637368,
        -0.005383982451068749,
        -0.03088468854343859,
        0.0036697053767115093,
        -0.06472364904066001,
        0.007421357873594225,
        -0.028206389492858287,
        0.01063452886061802
      ],
      [
        0.0319733959746542,
        -0.008103337419426883,
        0.022302315752480713,
        -0.03541235240499961,
        0.06815562920221115,
        -0.03526410921879142,
        0.060552435173265536,
        -0.03906865817880931,
        -0.0003345574797295633,
        0.044244085577496525,
        0.030234545432547485,
        0.028166139794933428,
        -0.00853799746399028,
        0.03491362228346797,
        0.057188276621993946,
        -0.008081482506182345,
        0.003841354393505428,
        -0.05963815072151244,
        -0.015117303988856703,
        -0.004500128674946204,
        0.053994509096666615,
        -0.05344560349616013,
        0.031151060864253226,
        0.006157165711281239,
        0.014636518087083378,
        -0.06458927524648213,
        -0.04852297558185274,
        -0.02965717869051747,
        -0.06855000615881447,
        0.02353654988783684,
        0.050762309731298694,
        0.0066153528231449495,
        0.006316390128866821,
        0.01588070458885372,
        -0.02661386724261627,
        -0.018320404858612003,
        0.010293762447812249,
        0.04199210772333431,
        -0.04087841790395167,
        -0.024305598579225162,
        0.03336779750703659,
        -0.021851282693080405,
        -0.06214041341010751,
        -0.04748911620926706,
        -0.04193778624727133,
        -0.0006713685858474146,
        0.018483311745923187,
        0.05205167188288945,
        0.05556738655097172,
        -0.026500136403604203
      ],
      [
        0.03480442719115552,
        -0.02974413080995199,
        -0.018220399841296888,
        -0.027775672164051333,
        -0.012367689877033908,
        -0.039103185568392436,
        -0.024864182414479036,
        -0.05228144417915356,
        0.06360044185555379,
        0.0007429738076503977,
        0.058863390656148075,
        0.03370091614900983,
        -0.006359849724237916,
        0.0349750499029752,
        0.016819404231235357,
        -0.026995204890911395,
        0.002975135287489647,
        0.029119290818931984,
        -0.026917744667720025,
        -0.06696013313772525,
        -0.03226605506129212,
        0.040835809393833716,
        0.05814191580386357,
        0.017078680254806994,
        -0.0504335238423798,
        0.035380007213840436,
        0.003695733235870906,
        0.03489473064302877,
        0.04842815827166185,
        0.061938535650509954,
        0.02107853911124767,
        0.04891358305230207,
        0.03391923656370459,
        0.03117088920566326,
        0.050144913481958826,
        0.05808136664647474,
        0.055229382278401844,
        -0.015063014798511022,
        -0.05696880468543296,
        0.04432346538799256,
        0.005347659726432235,
        0.005779603920848832,
        0.04466626352045226,
        -0.06472803145643577,
        0.05209123559321082,
        -0.06392293134138011,
        0.02641778200448469,
        0.01174625238772293,
        0.019894333773591875,
        -0.01731435011980776
      ],
      [
        -0.030842660390395703,
        0.0013726908129921619,
        0.05290160350017763,
        0.009362551392796686,
        0.02211982950299362,
        -0.008004770415859995,
        0.06485328652372976,
        0.033115640255874046,
        -0.01993067147869488,
        0.0212001535555293,
        0.00627678488387228,
        0.05269080203475132,
        -0.03121064988193979,
        -0.05383606732722357,
        -0.042841278336059906,
        -0.015537704198525864,
        0.04863384954506302,
        -0.031501832349546996,
        0.017257213516512455,
        0.016971143826669168,
        -0.012877041166135401,
        -0.06172387216129342,
        0.033107690567762534,
        -0.02813685590278854,
        -0.0139454325354091,
        -0.01686244100072331,
        0.02247254810545334,
        -0.05680837283810124,
        0.0063818036267512335,
        -0.06629887334780112,
        0.06626612759116667,
        0.01366316077780178,
        -0.01557954766945453,
        -0.048536424955777834,
        0.02753158248165313,
        0.05572927548456452,
        -0.024984682527076637,
        0.03618414414040555,
        -0.02909284798508789,
        0.06226784571923752,
        0.027790204140834298,
        0.01717221112687688,
        0.05916596152845734,
        -0.03197455839428949,
        0.058286960036948166,
        0.024461570470987536,
        0.03720673704389729,
        0.009686416501353245,
        0.046105484461104004,
        0.027225929555925676
      ],
      [
        -0.048542024466530616,
        0.015527597957607782,
        -0.030407423340216497,
        0.057517459406167114,
        -0.04173975335785468,
        -0.029386954322963406,
        -0.06213440027835724,
        -0.007396835513561832,
        0.007910294189658948,
        0.010214817810935044,
        0.05610347423532334,
        -0.021022325419780656,
        -0.0075177413929830555,
        0.04824619987091877,
        0.010121500252740835,
        0.021130367081985853,
        -0.030444685143281042,
        -0.0017457725607671589,
        0.016515140015338534,
        -0.05035719908143212,
        -0.06440488872764563,
        -0.05305997159286927,
        -0.0036158700121809396,
        -0.06545712088627914,
        0.01733852083045518,
        -0.05527627449284409,
        -0.03420806112111355,
        -0.010083926783298567,
        -0.05323872784105895,
        -0.031255518263143524,
        -0.06586866574607,
        0.06676847084732478,
        0.01566251108022244,
        -0.01672283372692383,
        -0.06455078362938615,
        -0.01514453262571885,
        -0.006516573357224367,
        0.05878382216924161,
        -0.030328797398190364,
        0.015232616800427267,
        0.02268761667177224,
        -0.04313657513425324,
        0.0007916568090816915,
        0.03910520502135258,
        -0.055315812007740016,
        0.014565067289190279,
        -0.0651680595949774,
        -0.06786493251838212,
        -0.060264580395223845,
        -0.0025649547660419377
      ],
      [
        0.05847495216619216,
        -0.012878890318862884,
        -0.05848501096439903,
        0.05009606358111202,
        0.002311611337914317,
        -0.02481570367970065,
        0.06360237852798371,
        0.059969384342207374,
        -0.032963926936954324,
        -0.04088730283608628,
        0.012706487234511501,
        0.04697448621633052,
        -0.02279237132007144,
        0.011871993205383726,
        -0.046901308022037035,
        -0.04197682944616935,
        0.0358971500216342,
        -0.048091820288187405,
        -0.03227133493073075,
        0.026029119366842574,
        -0.0668952786303654,
        -0.06420858776264103,
        -0.029796101977829254,
        -0.02253215294799349,
        -0.018923262573478213,
        0.042195867604672505,
        -0.06373791130145687,
        -0.01943559096769634,
        0.018443814088928912,
        -0.048729963662110715,
        0.04904064280586653,
        0.020161967776669384,
        -0.052448112820889015,
        -0.04011169578318997,
        0.03429197628324429,
        -0.01328305896901648,
        -0.0021332010301097284,
        0.05272898165929484,
        -0.04968822820486056,
        0.06315954438223248,
        -0.06282464024476263,
        -0.055021108132566054,
        -0.03801612242360121,
        0.041820642486242156,
        -0.005945880974884952,
        0.02105066178646118,
        -0.044814566424186346,
        -0.04595845976947413,
        0.003144186336971678,
        0.03299499255725889
      ],
      [
        -0.005154528243368936,
        0.050880865093871595,
        0.02190324053597464,
        -0.033922799826288416,
        -0.03681336054802766,
        -0.017235807588342103,
        0.0352489236318769,
        0.0598839020399952,
        0.04971160852531458,
        -0.03259254995095096,
        -0.011467694621064591,
        0.015234602467289221,
        0.00600417606108207,
        -0.015209254828971137,
        -0.05534627683179508,
        0.029123377554420977,
        -0.05657398201416397,
        0.05025026664865529,
        0.04978663241886719,
        0.028632916182953515,
        -0.0022035309284789356,
        0.02741311839237505,
        -0.015143688458446212,
        0.040757485372566876,
        0.03934571785446747,
        -0.0473167845210245,
        -0.02502468219427118,
        -0.021412518537005463,
        -0.01930556107918665,
        0.009516253392020765,
        -0.06307010902806834,
        0.022170396630745357,
        -0.04051836250410734,
        -0.011493350834609041,
        -0.006073889179566901,
        -0.020796569758901116,
        -0.016032681251577204,
        -0.04449284754879814,
        -0.05918913430204539,
        0.006302259082298572,
        0.013168336750378321,
        -0.04869434530933695,
        -0.036957995975626386,
        -0.029687313152611926,
        0.045568164012450986,
        -0.04760629149125454,
        0.00706861382415898,
        0.009148662390615542,
        -0.021177615488800327,
        -0.02053329018004267
      ],
      [
        0.06306388102750159,
        0.007441714414358661,
        0.02084359623536822,
        -0.0007105194438756465,
        0.019730475151774004,
        0.014524807630146101,
        -0.04873919302217207,
        -0.022989391436294644,
        -0.005434808573998629,
        -0.050964520734443665,
        -0.018206117628222634,
        -0.03743284185662505,
        0.047289010305044836,
        -0.021775208175407713,
        -0.03814661590688109,
        -0.01264402036238482,
        0.025145778980136174,
        -0.059701943684208086,
        -0.04399687795983921,
        0.026690108756718674,
        0.034299372695706196,
        0.01623507978540487,
        0.051342549034099544,
        -0.045604275717030664,
        0.027962854549920188,
        0.05731508657064824,
        -0.04797459388008323,
        -0.03517804801876287,
        0.005741883310986987,
        -0.021037330737626415,
        0.026066160872121748,
        -0.060568956617977114,
        -0.04611556198108161,
        0.029683357203583078,
        0.06533961638846913,
        0.05898506297788034,
        0.05509078436661968,
        -0.05173330383988227,
        -0.04849796437741818,
        -0.05951833566537971,
        0.00584334998770332,
        0.052538512568059054,
        0.004366953002646292,
        0.03834049709945379,
        -0.042653398869193344,
        0.049877163822918597,
        -0.04303199051024694,
        -0.06137632553476369,
        -0.010442119534134662,
        0.007554697982667616
      ],
      [
        0.06466138317074786,
        -0.055942025599451,
        -0.03121473810566093,
        -0.0535804816211418,
        -0.01553695665123572,
        -0.028901932770546913,
        0.0018269433699438543,
        -0.02117502249630904,
        0.058821637781323474,
        0.04001388001582429,
        0.05029905770988149,
        -0.050998382076080685,
        0.009787792248338364,
        -0.039177628852136666,
        0.049852198880368105,
        -0.06665467180682147,
        -0.05415519298708567,
        -0.01706679118287369,
        -0.013615538119884479,
        -0.030601172799318902,
        -0.055898720867080066,
        -0.052300291194316804,
        -0.025885241630667143,
        0.06179082853688304,
        -0.040186755978799144,
        0.033966561868681584,
        -0.03321533905066084,
        -0.0635429078157001,
        -0.06726650640410362,
        -0.04726273431736971,
        -0.005349834943663898,
        0.03539111041860599,
        0.03199876639184811,
        -0.020298581879103772,
        -0.0020454468864518865,
        0.04311985951247636,
        0.04648321066078849,
        -0.025443980005693433,
        -0.06793231875113617,
        -0.06313546596356662,
        0.03266535310862899,
        -0.031231355810323703,
        -0.0025431190930064267,
        -0.042722760957492285,
        0.04784565849217285,
        0.0004639503305269415,
        0.003616928657797591,
        -0.029367213660765275,
        0.0020515332271189434,
        -0.0684276260144542
      ],
      [
        -0.030590876614208708,
        -0.020670555779066496,
        -0.0297993249344971,
        -0.05636599463899681,
        0.0026178940293821954,
        0.039686712125237736,
        0.06079556626936837,
        -0.0006264710068294006,
        0.012878081913744798,
        -0.028584583280622064,
        -0.04764691693156717,
        -0.05064792274754627,
        0.031515457365334655,
        0.03220685151173437,
        -0.04460389485009303,
        -0.01190212902525177,
        0.012931717025503102,
        -0.051503627994040735,
        0.039070292808097186,
        0.01648219551146651,
        0.015509657885649317,
        0.027692587439948315,
        0.06624641164201008,
        0.008470596327004783,
        0.0500595179282974,
        -0.011166221421220897,
        0.021217995644809796,
        0.05843100390189827,
        0.021941131747067674,
        -0.026710171357835513,
        0.01636714411265589,
        -0.020238649772633406,
        -0.023963760405576878,
        0.015120409537795148,
        -0.04602937021393596,
        -0.0018380232480873712,
        0.061212572221510414,
        -0.016488262346840688,
        -0.04259995282873609,
        -0.004971726006105441,
        0.046827288556501236,
        0.04706902817849725,
        0.04502723454156017,
        -0.06742607860577396,
        -0.031872145904411904,
        0.06866321506122075,
        -0.052327790417823275,
        -0.0015589382356408525,
        0.040147436087249945,
        -0.051906001808947916
      ],
      [
        0.022308615017812047,
        -0.00152733210132345,
        -0.04212290618189402,
        0.05254857677820078,
        -0.044148551746668936,
        0.019165272962178903,
        0.03308011338270754,
        0.00833861471961724,
        0.017697749227551216,
        -0.052187126552794026,
        -0.025789190635821538,
        0.011858434445236701,
        -0.014786153118330614,
        0.022519724554957436,
        0.04775030990536784,
        -0.042581805866027715,
        0.05539376156334735,
        -0.016081198512983685,
        0.0607316073710848,
        0.016123699534895616,
        0.0395104891360872,
        0.002087520055490867,
        0.0035624176997350963,
        -0.023788018031091193,
        -0.050907376051174937,
        -0.015958286537621286,
        -0.0391509884723104,
        -0.06414793422883726,
        -0.03156650786370245,
        -0.04351618729647621,
        0.05146756142391125,
        -0.057325646139801574,
        -0.04295682484735288,
        0.028007256494803505,
        0.058253431167821355,
        -0.03415731606220768,
        -0.0657543417326392,
        0.06267839322815388,
        0.025162057243237335,
        -0.02674234956814423,
        -0.0037947992795998703,
        0.013633841813581455,
        -0.017325482805005125,
        0.05109752859562097,
        0.031202518696049678,
        0.06240849084542666,
        -0.020550480892938705,
        0.059840431236809634,
        -0.002542039505137894,
        0.019535598393568568
      ],
      [
        0.032505991123460067,
        0.04257338504072909,
        -0.014347786367440126,
        -0.006744908116530389,
        0.04328290261483992,
        0.029932503555741407,
        0.06055529158503869,
        0.06567497767017116,
        -0.044104641965933215,
        -0.03725901503306813,
        0.03010271832214487,
        0.033915500071024424,
        0.013852200348382856,
        0.05182610459891657,
        -0.034513005600971876,
        -0.022071031306097003,
        -0.0007353119091332009,
        -0.02543363654028436,
        0.006139277531907189,
        0.025065290046543495,
        -0.03866373344083749,
        -0.001970537726126879,
        0.06717886809427151,
        -0.02423305493005116,
        -0.06382047155449921,
        0.04359160931482663,
        0.0004542216268692541,
        -0.061416377503267845,
        0.05312834714348559,
        -0.012845609413972482,
        0.05887848754660147,
        -0.013303483816043364,
        -0.05777857630971115,
        -0.034999476037115285,
        -0.020066493317236637,
        0.03442702893295106,
        -0.04330316841055748,
        -0.009914546412953877,
        0.05136840489957024,
        0.004085673489267436,
        -0.0545108875069346,
        -0.06531185454404902,
        0.028270148285045232,
        0.06555618947891038,
        0.03927206660322483,
        0.036362937029902793,
        0.024029921437373127,
        0.040432707592431893,
        -0.06293659908420915,
        -0.032333911605784374
      ],
      [
        0.026839913771286895,
        0.05053308761850556,
        0.023837766512274525,
        -0.04386124727577902,
        0.05948555948819019,
        0.05548113977863471,
        -0.05677403362065185,
        -0.042472836769479556,
        -0.03087960983538833,
        0.032918941282618984,
        0.05001335795758445,
        0.010661073810674288,
        -0.04173597250708941,
        -0.011663300067840693,
        -0.05041080185063404,
        0.05729950233349984,
        0.03633611649784681,
        0.0013646376769461085,
        -0.006529781819102614,
        -0.05524063487277708,
        -0.02528521290450059,
        -0.052045054238233426,
        0.037979107702735174,
        0.006046062113430227,
        -0.03745763484883425,
        -0.037883650763201625,
        -0.032911836304105144,
        -0.02623319979986639,
        -0.016148450301564962,
        -0.027404768434833048,
        0.024534306470523053,
        -0.06364269271440227,
        -0.023090829903062448,
        0.033672654471804786,
        0.06157427569581776,
        0.04156386145022078,
        -0.03560025540900276,
        -0.037334050335639794,
        -0.04238724890416843,
        0.051715481625037356,
        -0.03600828800166276,
        0.03546383343766574,
        -0.03282234124824261,
        -0.0645202526098553,
        0.032218353818628864,
        0.031071205886117875,
        -0.056564887507807,
        -0.024040098723909314,
        0.06195655417210004,
        -0.04631312955841142
      ],
      [
        -0.056774898097539085,
        0.013074546845242977,
        0.05910646665177262,
        -0.04991312468070193,
        0.0014992192761976442,
        0.025321279796716237,
        -0.045077645993128586,
        -0.06732947007231307,
        0.053252369539466854,
        -0.06373069927640503,
        -0.03289595038972173,
        0.020772518553214735,
        -0.02973452267104366,
        -0.06734683610628939,
        0.009933213012574934,
        -0.026423899453330426,
        -0.04786822148953181,
        0.0647109661688683,
        -0.04611833037676192,
        0.0312131860606156,
        0.05342564346144821,
        0.04931532444197797,
        -0.04388942425741502,
        -0.036229130224366614,
        -0.06615558772219537,
        0.0592580939379715,
        0.05317517925115457,
        0.013126300869500685,
        -0.054124951220748986,
        -0.044581334810443206,
        0.010487594118640517,
        -0.033970494878263265,
        -0.02711252860506864,
        -0.04520678090131406,
        -0.042153346517510015,
        -0.005037185395839621,
        0.001356294349412122,
        0.0011725000839266032,
        0.06838304798864135,
        -0.05141167031865527,
        0.035187637760836485,
        0.040350589509980876,
        0.011659520783390031,
        -0.005366471276355589,
        0.05413940603757944,
        0.04507901667013394,
        -0.06183953156791229,
        0.06344343335981449,
        -0.06743376150690669,
        0.010035390215302446
      ],
      [
        0.009949137132361414,
        0.045992294670863486,
        -0.015908671347199806,
        -0.05587185933708904,
        0.01099747588062375,
        -0.0652310060929429,
        -0.018983810832794476,
        0.06651172278191976,
        0.05065566978782386,
        -0.04764791429382045,
        0.04137192072469093,
        0.042670015135686544,
        0.0585790839774182,
        -0.03785872987910345,
        -0.000475488039374957,
        0.044960757498028324,
        0.02298506139314136,
        0.012883939710257662,
        0.02079902753561035,
        -0.03591758531729153,
        -0.06536136381714909,
        0.03248496376143662,
        -0.024193701216776813,
        -0.01698837044753665,
        0.015470852174516443,
        0.02158827727239909,
        -0.04080997157404478,
        0.044793950746549425,
        -0.016816874886500893,
        0.0182986107507638,
        0.06400169829479872,
        0.009009061779078193,
        -0.019119879917922362,
        0.01633140761369864,
        0.0006214792967143196,
        -0.006551455220996719,
        0.031904836780333366,
        0.05798718011967925,
        -0.0027731175582501,
        -0.05697346434754861,
        0.009567651127065202,
        -0.03503369181254632,
        -0.0632438331064525,
        0.039386931385322774,
        -0.031136713568865992,
        0.03805855637925858,
        -0.001671697301886418,
        -0.0251263374902133,
        -0.025361037740732135,
        -0.06291554571369948
      ],
      [
        0.004725180651197642,
        0.0445236036106575,
        -0.05725170937989832,
        -0.053373973288633914,
        0.0037280014933255123,
        0.022044613865037477,
        0.026750417376709808,
        -0.025853496512494696,
        -0.06349110073906782,
        -0.011624561614463694,
        -0.03720743853896368,
        -0.06859056246080628,
        0.025197949208265197,
        0.06209556076090513,
        -0.015386014160645667,
        -0.02745344711398037,
        0.007383378753152422,
        0.048322672393446425,
        0.04041731306540359,
        0.025378283332160533,
        -0.00957233572098922,
        0.026200497474595824,
        -0.03953013019201693,
        -0.029755308998235752,
        0.03816400061924745,
        0.05906230969351922,
        -0.0425749718640606,
        -0.0279997337452543,
        -0.06829868547996448,
        -0.00913739848124974,
        -0.039878466979308566,
        0.019569436044322076,
        0.02912812903352436,
        -0.052378439434278036,
        -0.05690830124960803,
        0.05580160728889791,
        -0.015214225999173783,
        0.004166644674789742,
        0.06372772024545505,
        0.03504652227462326,
        -0.023963881354620607,
        -0.05688796939521207,
        0.004948278885938039,
        -0.022760178930168098,
        -0.0656026176746801,
        0.03724563468637709,
        -0.015876763384445856,
        0.00964314542382015,
        0.03536931215903681,
        0.06054486998795235
      ],
      [
        0.01542865865679832,
        -0.025270784181639087,
        -0.053662706110139916,
        -0.058102091360301734,
        -0.025080096321527308,
        0.022144009572269797,
        0.026806195705264043,
        -0.04036056662752031,
        -0.05730738096385049,
        -0.026595579006499007,
        0.0069903614586369536,
        0.03491332278857017,
        0.0037378101414937714,
        -0.02926002971185892,
        0.016589770381239443,
        -0.03232619504687612,
        0.020973983289235297,
        0.046936417534650776,
        0.018978797111546358,
        0.009015174931760088,
        -0.02675635311119067,
        0.051799902228879,
        0.06658181844126931,
        0.03803115930093967,
        0.010118351883903552,
        -0.04927406956296384,
        -0.02542145199453009,
        -0.018274153228365727,
        -0.029092714767956808,
        -0.007140671334183898,
        0.015105681403229834,
        -0.03928006147562627,
        -0.03400851839812907,
        -0.05328978946251139,
        -0.025903928198046988,
        -0.00036428297458194624,
        -0.0014000083376663013,
        0.06761899676189567,
        0.0661892914423772,
        -0.009291934621131114,
        0.06483701406022742,
        -0.039230462076737645,
        0.005648387692687691,
        -0.006665473638746624,
        0.06433748558338262,
        0.04617735221709016,
        -0.03933791468363039,
        -0.008470194547392238,
        -0.04527956820971101,
        0.003984485272936184
      ],
      [
        0.04031321740405272,
        -0.06363564528517993,
        -0.042533005722160434,
        0.06615427200579939,
        0.06287508574336444,
        0.007842079787701652,
        0.020067102423988372,
        -0.03159109668746643,
        0.06209948194570206,
        0.023481078977417996,
        0.023525007718985882,
        -0.06724683574856244,
        0.04803264681899982,
        0.038231043562148806,
        0.024772789008827803,
        0.03304163066612808,
        -0.04717340198089116,
        0.030014933606012525,
        -0.055525255981020635,
        0.02842669081139809,
        -0.06867530862629283,
        0.038001064025338135,
        -0.0019163996557904532,
        -0.04071789799585752,
        0.031492923916258304,
        -0.025321850567006768,
        0.052721396757716324,
        -0.04390431718371727,
        0.05955772907729561,
        0.06504322050555915,
        -0.026978131387452826,
        0.04999850460093614,
        0.0474919516653124,
        -0.010374814814771175,
        -0.018017713350756717,
        -0.02990302518567729,
        0.06775127791687925,
        -0.03416001826070515,
        0.05792394234548921,
        -0.010620946119259957,
        0.05981049559721134,
        0.0465439141108171,
        -0.047282617217580855,
        0.009841641487598547,
        0.023975560419514888,
        -0.012936561197826211,
        -0.06810844348476937,
        -0.02421467898840439,
        0.04690524110064731,
        -0.060065456775215735
      ],
      [
        -0.05419976218616746,
        0.027798675347381317,
        0.0018486470904278116,
        0.00014610789208741536,
        -0.017654073706612317,
        0.01426652997327183,
        0.04827794449595125,
        -0.030841146473161545,
        0.047356611762707675,
        -0.011341183733562457,
        0.0005619837710328326,
        0.031477245861416495,
        -0.033456907868881766,
        0.057916280690302475,
        0.02731818633647183,
        0.01631383364382218,
        -0.031179631836704778,
        0.026876662539676983,
        -0.03344952361424626,
        0.04346811407857025,
        -0.06735300024913642,
        -0.04576184522439724,
        0.007415839228026469,
        0.029080727471251684,
        -0.001030433823965736,
        0.051896122391077985,
        0.06536575820687818,
        -0.004893686440843409,
        0.03633545018951303,
        -0.0004526556961611768,
        0.02259291722677263,
        -0.037646879785145325,
        -0.05329189925838736,
        0.06578328487635246,
        0.04376054986559396,
        -0.029492746667842785,
        0.011789434425158994,
        -0.01689868385327225,
        -0.04436097730462282,
        -0.011690615002292187,
        -0.02785839692634008,
        -0.06639678046740768,
        -0.015471151737072706,
        0.05756447513227662,
        0.04518153532748664,
        0.01017494940363048,
        -0.024979150927662265,
        -0.03706853446627989,
        0.06288144060369641,
        0.008864618258741842
      ],
      [
        -0.038789891920875355,
        -0.034328890029156664,
        0.0630326584887315,
        -0.03547214046749847,
        -0.05431985180399612,
        -0.04336252950236282,
        0.03656878693953818,
        0.028473505777840667,
        -0.008524331586435814,
        0.040471059316032995,
        0.002839431465704361,
        -0.011933210686414106,
        -0.05286838172924529,
        0.052734236664451144,
        -0.03127007466389188,
        0.01594674983091825,
        0.06656214684563955,
        -0.04268731903998041,
        0.06379641262211524,
        0.020977067595636,
        -0.05125032983561617,
        0.037395498840879934,
        0.061519862841617465,
        0.008543967737406915,
        0.025902514550163475,
        -0.06506111771321224,
        0.0671797070592406,
        -0.02492337633333944,
        -0.06588009271203821,
        0.04265437969789819,
        0.06491968207551244,
        0.03278212363591836,
        -0.06795716761015339,
        -0.0599909158457128,
        0.012076149938815997,
        -0.02257938711833355,
        0.05244885841273146,
        0.0508952010892776,
        0.06706488705127657,
        0.029096073364572206,
        0.05176895376070905,
        -0.02477296053000625,
        -0.05340894925246496,
        0.04993007385795108,
        -0.02689369678559446,
        -0.011080560205446349,
        0.019989282186304826,
        0.014279065099027946,
        -0.010615702917806035,
        -0.01564885918765939
      ],
      [
        -0.05182874108632813,
        0.004743370009761438,
        -0.03680453163971187,
        0.035452606473709646,
        0.023687411681249923,
        -0.05874599696191609,
        0.0672056680978648,
        0.03829744399310549,
        -0.03738598693330701,
        -0.06433012243424725,
        -0.0024859596628935324,
        -0.02030003059635545,
        0.006031223397526943,
        0.02193152935465559,
        0.04032846499609665,
        -0.06684539680282235,
        0.029435750484182597,
        -0.028144404547744653,
        0.06669845760555572,
        0.04755995589601587,
        0.008014327913016858,
        0.013477691651972124,
        -0.042896028249875734,
        -0.037691197222001954,
        -0.04752218339972996,
        -0.01678359879907224,
        -0.05330201510220483,
        0.001563487227127834,
        0.018481331490544928,
        -0.05159155009296044,
        -0.02149800238099528,
        -0.05885315284796831,
        0.003926729099033695,
        0.020628380701149973,
        0.016421070311683043,
        0.043098630521007125,
        -0.03632276822326563,
        0.015750467343567106,
        -0.02697292048744294,
        -0.05710258026362757,
        -0.026749392130931627,
        -0.05887871202624535,
        0.06299000762883618,
        0.03091686141057097,
        -0.05463021591938658,
        0.03932211268170548,
        -0.020385710600538544,
        0.05633903891388699,
        -0.0003431613387063675,
        0.05118162192320068
      ],
      [
        -0.038388182191889844,
        -0.018165429239042286,
        -0.018382809862256207,
        -0.05495954214210281,
        -0.023490715161029043,
        0.021983339504461373,
        -0.004595604556384236,
        0.05190198408002832,
        -0.031638219787718115,
        -0.019835495485745105,
        -0.024270200556802967,
        0.007045921922452764,
        -0.043125811907189296,
        -0.04488334785486493,
        0.059950632576422344,
        -0.016965157049500464,
        0.011963848050987267,
        -0.061128519187144126,
        -0.04942746174767164,
        -0.055444412892386004,
        0.04263588708677262,
        -0.05447132985058896,
        0.0017392910700511361,
        -0.04738450539841435,
        -0.030379543494964464,
        0.05255442298616877,
        0.018075792467858096,
        0.06370155749776596,
        0.013244581701404972,
        -0.06712012353236506,
        -0.01166859427925254,
        -0.06546025411223934,
        -0.02522618778915277,
        -0.002536993156868562,
        0.010833851443427328,
        -0.03591143400273371,
        0.00800627670036783,
        -0.014838320080355951,
        0.000996797916424839,
        -0.04227752120598664,
        -0.047148788974402556,
        0.03496059714063419,
        -0.023354971468701517,
        0.019566722038309947,
        0.009085924510782217,
        0.054879787905342974,
        0.052225859009674726,
        -0.007961557737318678,
        -0.04032721565268834,
        0.01814825684101577
      ],
      [
        0.01879586536672623,
        0.026596223861928947,
        0.055774263082140924,
        0.03962869444005301,
        0.016611158609972546,
        0.013966465111763653,
        -0.03945557790777265,
        0.020384579024334753,
        0.04319991765877743,
        0.05823945867346136,
        0.05810357891065257,
        0.008261874325026645,
        -0.03363266893676151,
        -0.02282967338989106,
        0.06747739295688363,
        0.003470112256777804,
        0.043393115560964486,
        0.0132747167888942,
        0.0007467605216251125,
        -0.02080468233515931,
        0.004680146383023528,
        -0.06766786929679017,
        0.050663552545745644,
        0.008285778996185872,
        -0.06534000539694647,
        0.04370465925493009,
        -0.05008792284752873,
        -0.06444467938432497,
        -0.006145181736540396,
        0.063818551501068,
        -0.05599537711080567,
        -0.05937442608162587,
        0.05288642403936528,
        0.04411594904835522,
        0.044958124197896576,
        -0.004446914499839639,
        -0.009959726053123386,
        -0.01445828805915327,
        0.011492177449374537,
        0.030344334569095334,
        0.03905050691141441,
        0.02126330214620399,
        0.008580386979758495,
        -0.012549563691779743,
        -0.024532675477001033,
        -0.02936112157423875,
        -0.028137034581912905,
        0.024786570361248046,
        0.03654433129139938,
        0.01338813818882257
      ],
      [
        -0.03806756926508751,
        -0.041837610381268535,
        0.03632818954870427,
        0.06644319783664752,
        -0.06700267919639329,
        -0.034408583882060334,
        0.040152257977840354,
        0.029759515734808548,
        -0.03489233370601369,
        0.007734231428069924,
        0.012495752417050292,
        0.030298649545490768,
        -0.005535299052662974,
        -0.013070066655846074,
        -0.027131265358536667,
        -0.03598505006567762,
        -0.055973964435862125,
        0.01999497100555967,
        0.023118294251566716,
        0.025733603346326586,
        -0.06867895688298395,
        -0.008407552477804,
        -0.05276053334718689,
        0.003519371830243137,
        0.06590150707837106,
        -9.931017453780764e-05,
        -0.017218148278070115,
        0.043132170886489636,
        0.06348860020708035,
        -0.02878085461579863,
        0.04147270896587369,
        0.06840057376694537,
        -0.05272795898538907,
        0.004241030845829964,
        0.043920005930389805,
        -0.017014671019428555,
        -0.0074484411062657775,
        0.03372728346249688,
        -0.05500256315616751,
        -0.020097015676525033,
        0.008750726512892163,
        -0.035908027338148706,
        0.04669623838333102,
        0.03608010760568769,
        0.06412007231559504,
        0.0031576547169263162,
        -0.05416649408275072,
        0.05970561613448149,
        0.04633079113471152,
        0.006083522242916306
      ],
      [
        0.04619466709869759,
        0.052511057645578126,
        0.03782565417094809,
        0.010188972957178685,
        0.015541830020062033,
        0.047353966813172645,
        0.016787744859588623,
        -0.04051903797152296,
        0.026302955924359588,
        0.004510488941912213,
        -0.032089862886759184,
        -0.0686367600515018,
        -0.03664978886715684,
        0.02384121777217251,
        0.05152414993997276,
        0.04540277074582656,
        -0.05383058658395729,
        -0.05893592648383091,
        0.03583115618875114,
        -0.029555407186117228,
        -0.03159607755585094,
        -0.06836240208004621,
        -0.05567722440596927,
        -0.05013360285780732,
        -0.04678802123086156,
        -0.007511753835419997,
        0.04314986950955102,
        0.042910796313439685,
        0.05583674264462366,
        -0.00748039813611744,
        0.028582683959739896,
        -0.0014566894794987263,
        -0.06148914055460219,
        -0.05764594130257781,
        -0.03440036795961509,
        0.06614280166955686,
        0.02636185691595994,
        -0.03229562363632715,
        0.028430716968292764,
        0.02161596388969039,
        -0.0627339164728631,
        -0.019026142095311147,
        0.037599427417423656,
        -0.05814896042346068,
        0.05289987711835806,
        0.05918430783045948,
        0.04843102362651066,
        -0.05271346398259058,
        0.009196779816801288,
        0.028500196520208312
      ],
      [
        0.053293160055439555,
        -0.055425733440807146,
        0.04325735692863158,
        -0.030007279460246422,
        0.012319832434940253,
        0.030249515550273217,
        0.03805150379640062,
        -0.028447474437838103,
        0.014749300865629193,
        -0.029056398367483104,
        0.06896878177321955,
        0.04312279742462133,
        -0.01219934296085823,
        0.0520791806288021,
        0.03140292286546121,
        0.058865500293503625,
        -0.04510773693230464,
        -0.02821224987913319,
        -0.055926815869119725,
        -0.025002226308489393,
        -0.016622688916113647,
        0.01828149666120162,
        -0.004554448657955388,
        0.029803779686360023,
        -0.031696627149637495,
        -0.04490911014624749,
        -0.016603786236481136,
        -0.008489052016255919,
        -0.011275596594109922,
        0.05713138292002786,
        -0.031756075742835746,
        -0.020147516120970314,
        -0.0387029279704218,
        -0.017609344731092352,
        -0.014529576986789174,
        0.010344982700932339,
        -0.030443909299536973,
        -0.03355401272181381,
        0.03020900435467943,
        0.055682693403029615,
        -0.05190899018444625,
        -0.043640962957172055,
        -0.05039626239954856,
        0.024913156596835222,
        -0.03916229585559668,
        0.014364013352128,
        -0.04106084185878873,
        0.04345875189281609,
        -0.024964543047279294,
        0.023286158751006782
      ],
      [
        -0.04825015237909155,
        -0.02653497191151848,
        -0.027993919576713735,
        0.01914606830790421,
        0.02441031588593962,
        0.04749465260908668,
        -0.04349564427962241,
        0.035476747124089526,
        0.029112113689828027,
        0.00807081153432115,
        0.021260846719668176,
        -0.056413545699591755,
        -0.04897319865889221,
        -0.011597115206987727,
        0.028382723103690288,
        -0.04566173291872927,
        -0.015249886930342012,
        -0.0003195843290770052,
        0.05960888847406553,
        -0.06109848966056619,
        0.04482318105999272,
        0.06656797177713321,
        -0.03275170176479864,
        0.05346209885283412,
        -0.028800880803352996,
        0.04107183557183756,
        -0.005514014166534115,
        0.013427249594337106,
        -0.03687808035986992,
        0.026165425263450257,
        -0.04838338740377921,
        0.008413257749941644,
        -0.00027116657616011895,
        0.04629851737827581,
        -0.00181318835024862,
        0.03909161469976413,
        -0.013695629253522253,
        -0.02701811370755492,
        0.039598455770632826,
        -0.012005012322408996,
        -0.00044421562300736654,
        0.010621065731477605,
        0.04390946281857665,
        0.010795065286411058,
        -0.0127439820116899,
        -0.0466219812361258,
        0.027660482838445386,
        0.052410922436365096,
        -0.05343310916277461,
        -0.004656117390906266
      ],
      [
        0.05968803767958398,
        0.008793713922054802,
        0.0061329478882661366,
        -0.05961729967146091,
        0.004595564913891589,
        0.021269231996175964,
        -0.04854433983577467,
        0.06251435387923186,
        -0.04173689552002234,
        0.023987427653475647,
        -0.03062769886660495,
        -0.053841432138275316,
        -0.03311488800510343,
        -0.022780996010865615,
        -0.005223200134317623,
        -0.0365084072553965,
        0.03125005988529276,
        0.04217416679256892,
        0.03988178131574118,
        0.029635340109632088,
        -0.03185679903299549,
        -0.03973474519664359,
        -0.054146370442558475,
        -0.014259627588199474,
        -0.056691184495114615,
        0.021344409284397133,
        0.0617887488359968,
        0.035125369113622545,
        -0.053034872204357306,
        -0.06563751973973078,
        -0.022753355447118182,
        0.06782659460929268,
        -0.025414211886004477,
        0.032612405923479214,
        0.030168472740352552,
        0.009955393092657732,
        -0.018180210829035245,
        -0.04044030993769987,
        0.0660171543662881,
        -0.060097352170076286,
        -0.036231902096746205,
        -0.026249674580863063,
        0.05624960745727138,
        0.029090383296120677,
        -0.03214241892180129,
        -0.04608428686028247,
        0.052206227273225096,
        0.04022036845779681,
        -0.06319789087575174,
        0.052092105005236124
      ],
      [
        0.01207945211172645,
        -0.005726420736860251,
        0.023754312004069203,
        -0.06274056989909318,
        -0.023691457847266766,
        -0.05652315739624384,
        0.025224543878683812,
        -0.014270363105277302,
        -0.00289087761121042,
        -0.028725779757113937,
        0.04016002385018354,
        -0.062375131063247484,
        -0.030477513970478255,
        0.012444297752033696,
        0.039278261887967444,
        0.013926214792869122,
        0.03166005119339345,
        -0.06548150345798268,
        -0.03379550478494987,
        -0.0628985295023462,
        -0.0003242915985534288,
        0.06724461630554668,
        -0.06751358843193797,
        -0.00822358108207593,
        -0.06801962820624641,
